svm_type nu_svr
kernel_type rbf
gamma 0.05
nr_class 2
total_sv 78
rho -0.67814
SV
-2.899695596422864 4:1 5:0.73353193 6:0.32957079 7:0.99999981 8:0.99999978 9:0.99999971 10:1 
7.604679962312118 4:1 5:1 7:0.99999943 8:0.99999625 9:0.99999576 10:0.99999713 
-8 4:1 5:0.66667029 6:0.73285175 7:1 8:1 9:1 10:0.99999998 
1.994925834182081 4:1 5:0.92537018 6:0.95454782 7:0.9999994 8:0.9999985 9:0.99999777 10:0.99999755 
-8 4:1 5:0.91985849 6:0.64465899 7:0.99999738 8:0.99999531 9:0.99999409 10:0.9999931 
-8 4:1 5:0.71797192 6:0.68744226 7:0.99999853 8:0.99999677 9:0.99999546 10:0.99999426 
8 4:1 5:0.70234011 6:0.2653375 7:1 8:0.99999577 9:0.99999588 10:0.99999447 
8 4:1 5:0.77065169 6:1 7:1 8:0.99999998 9:0.99999977 10:0.99999992 
-8 4:1 5:0.9958673 6:0.59325673 7:0.99999745 8:0.99999186 9:0.99999078 10:0.99999 
-8 1:0.52033659 2:0.48201516 3:0.49182156 4:0.26578535 5:0.18412358 6:0.32957079 7:0.14880922 8:0.39724005 9:0.5509342 10:0.66454649 
-8 1:0.48644602 2:0.43859994 3:0.45529799 4:0.43139566 5:0.24188241 6:0.32957079 7:0.19722083 8:0.53712814 9:0.68388233 10:0.76682306 
1.364554587267678 1:0.48188287 2:0.40595606 3:0.43222695 4:0.44996131 5:0.25864338 6:0.32957079 7:0.22024381 8:0.59921588 9:0.74853101 10:0.8264405 
-8 1:0.4690963 2:0.37062089 3:0.39417008 4:0.5952464 5:0.32493974 6:0.32957079 7:0.27642234 8:0.71411003 9:0.82265518 10:0.87404688 
8 1:0.4473076 2:0.3252014 3:0.36213481 4:0.61528847 5:0.35264293 6:0.32957079 7:0.31893108 8:0.79653826 9:0.88902638 10:0.92721087 
8 1:0.39912464 2:0.26486206 3:0.28134164 4:0.79213189 5:0.47460613 6:0.32957079 7:0.44247429 8:0.89218427 9:0.93823727 10:0.9580962 
8 1:0.38388147 2:0.23917346 3:0.26151842 4:0.80099277 5:0.49345341 6:0.32957079 7:0.47413286 8:0.92095521 9:0.95660685 10:0.97127002 
8 1:0.38926679 2:0.23330576 3:0.21760868 4:0.937609 5:0.57340146 6:0.32957079 7:0.58448631 8:0.90977574 9:0.94729868 10:0.9630574 
8 1:0.36952527 2:0.21880053 3:0.20252798 4:0.9446043 5:0.58998495 6:0.32957079 7:0.61289724 8:0.92353174 9:0.95596877 10:0.96933489 
-4.4554648598256 1:0.34823548 2:0.18915155 3:0.17197138 4:0.95856976 5:0.62371967 6:0.32957079 7:0.6773029 8:0.94858786 9:0.97118278 10:0.98014756 
-8 1:0.50074693 2:0.20327523 3:0.26731451 4:0.48910131 5:0.42784262 7:0.38836433 8:0.75826399 9:0.84406679 10:0.89508562 
-8 1:0.49732011 2:0.19425317 3:0.26087605 4:0.49436584 5:0.43672716 7:0.40192595 8:0.78307238 9:0.86525447 10:0.91252707 
-8 1:0.45596433 2:0.18841442 3:0.23450983 4:0.63021715 5:0.49869366 7:0.42522248 8:0.83309109 9:0.90153382 10:0.9340517 
-8 1:0.44896435 2:0.18159709 3:0.22833481 4:0.63387895 5:0.50843605 7:0.43752204 8:0.8525714 9:0.91574766 10:0.94460586 
-8 1:0.40037124 2:0.17722028 3:0.20755855 4:0.74381909 5:0.56799083 7:0.45461109 8:0.88191774 9:0.93215958 10:0.95417437 
0.6395537522610694 1:0.26551905 2:0.15838961 3:0.15911189 4:0.94559076 5:0.6810976 7:0.49883369 8:0.92306115 9:0.95785646 10:0.97233959 
8 1:0.24210501 2:0.14982579 3:0.14913954 4:0.95394808 5:0.7105898 7:0.52021386 8:0.94257704 9:0.97053208 10:0.98157375 
8 1:1 2:1 3:1 4:-2.220446e-16 6:0.73285175 9:5.5511151e-17 
-8 1:0.9235012 2:0.76153855 3:0.76113993 4:0.50180678 5:0.17824111 6:0.73285175 7:0.12857962 8:0.40136263 9:0.52639619 10:0.61154509 
-8 1:0.82058047 2:0.6055824 3:0.57188438 4:0.73314318 5:0.25461805 6:0.73285175 7:0.18413985 8:0.49865933 9:0.61041965 10:0.68222394 
-8 1:0.77712716 2:0.57333171 3:0.53952482 4:0.79099421 5:0.31304364 6:0.73285175 7:0.23733669 8:0.60531368 9:0.7143895 10:0.77830257 
3.200368685643502 1:0.72244709 2:0.54412914 3:0.50851248 4:0.83086949 5:0.36198812 6:0.73285175 7:0.28558256 8:0.68675266 9:0.78660816 10:0.84081251 
-8 1:0.67463111 2:0.50948882 3:0.47088735 4:0.8667276 5:0.41394829 6:0.73285175 7:0.34090583 8:0.76417027 9:0.84941607 10:0.89195801 
8 1:0.5978114 2:0.45768725 3:0.41280479 4:0.90572882 5:0.48029923 6:0.73285175 7:0.42007767 8:0.84854413 9:0.91085696 10:0.93875729 
-8 1:0.63366397 2:0.48144979 3:0.5143552 4:0.22346684 5:0.16726711 6:0.95454782 7:0.10791328 8:0.14680173 9:0.1684526 10:0.17979299 
-8 1:0.61136305 2:0.42785441 3:0.45932635 4:0.43665819 5:0.24940473 6:0.95454782 7:0.16953354 8:0.29339275 9:0.37053279 10:0.42928938 
-2.683971733615578 1:0.51510148 2:0.35583301 3:0.38428746 4:0.64481369 5:0.37475486 6:0.95454782 7:0.2865091 8:0.54325134 9:0.65303662 10:0.72252647 
-8 1:0.46853272 2:0.33762168 3:0.34151551 4:0.74354888 5:0.40817328 6:0.95454782 7:0.31990597 8:0.58267598 9:0.68446871 10:0.74947496 
-8 1:0.40408237 2:0.29828111 3:0.28355242 4:0.85361077 5:0.49931356 6:0.95454782 7:0.40217349 8:0.72326293 9:0.81343149 10:0.8623747 
8 1:0.38091438 2:0.27137208 3:0.26048688 4:0.88924744 5:0.5610292 6:0.95454782 7:0.46813322 8:0.80366237 9:0.87757252 10:0.91423059 
8 1:0.34697004 2:0.24992105 3:0.2384489 4:0.91370869 5:0.61428851 6:0.95454782 7:0.52583811 8:0.85994327 9:0.91778061 10:0.94444371 
-6.326296651484351 1:0.36984042 2:0.29833354 3:0.27230288 4:0.16595946 5:0.14590654 6:0.64465899 7:0.088546004 8:0.084891222 9:0.063709855 10:0.018499355 
8 1:0.34830635 2:0.26500218 3:0.24596266 4:0.47184641 5:0.25305255 6:0.64465899 7:0.16931435 8:0.27746272 9:0.32957942 10:0.36452659 
1.706437405837681 1:0.32655618 2:0.25786963 3:0.23035731 4:0.5820412 5:0.29664729 6:0.64465899 7:0.20775123 8:0.3549009 9:0.42421196 10:0.47398152 
8 1:0.30931243 2:0.26117785 3:0.21979651 4:0.63446181 5:0.31503191 6:0.64465899 7:0.21359362 8:0.38823486 9:0.46552222 10:0.51658293 
8 1:0.3219146 2:0.24731904 3:0.22459438 4:0.6351018 5:0.33746641 6:0.64465899 7:0.24532274 8:0.43370765 9:0.51906071 10:0.58093901 
8 1:0.30754529 2:0.24725053 3:0.21493345 4:0.69005736 5:0.35760924 6:0.64465899 7:0.25117124 8:0.46847982 9:0.55943124 10:0.61867585 
8 1:0.28914786 2:0.22275607 3:0.2019958 4:0.78090843 5:0.44509297 6:0.64465899 7:0.33630576 8:0.62989259 9:0.72893623 10:0.78645718 
8 1:0.27060493 2:0.20502195 3:0.18918605 4:0.84279767 5:0.5201939 6:0.64465899 7:0.41612162 8:0.75124925 9:0.8357921 10:0.87875768 
8 1:0.25094672 2:0.19243625 3:0.17716993 4:0.87987247 5:0.57577429 6:0.64465899 7:0.48012003 8:0.82547884 9:0.89218484 10:0.92304103 
8 1:0.72327769 2:0.29423454 3:0.46800685 4:0.25643278 5:0.094808713 6:0.68744226 7:0.25388285 8:0.42468336 9:0.52818136 10:0.61044563 
8 1:0.65376562 2:0.23049136 3:0.38424326 4:0.48374449 5:0.19081488 6:0.68744226 7:0.33757357 8:0.61717354 9:0.73687152 10:0.80630722 
5.22265630531995 1:0.64003432 2:0.22690607 3:0.36705256 4:0.61878655 5:0.2317782 6:0.68744226 7:0.35302049 8:0.6333687 9:0.73527561 10:0.79288217 
8 1:0.55090642 2:0.16601735 3:0.28897512 4:0.67477409 5:0.31662131 6:0.68744226 7:0.46462982 8:0.82460744 9:0.90086367 10:0.93411854 
-8 1:0.51014876 2:0.13851133 3:0.21908051 4:0.9172357 5:0.45980467 6:0.68744226 7:0.55750658 8:0.87351794 9:0.92517668 10:0.94832149 
8 1:0.30786507 2:0.083885703 3:0.12741196 4:0.97248951 5:0.6252218 6:0.68744226 7:0.76920072 8:0.97447988 9:0.98666152 10:0.99114316 
8 1:0.95647634 2:0.47744871 3:0.45907521 4:0.22856825 5:0.15253116 6:0.2653375 7:0.044665087 8:0.39766723 9:0.56732725 10:0.70652118 
-8 1:0.88121704 2:0.4450415 3:0.41346795 4:0.43582015 5:0.22619077 6:0.2653375 7:0.096622259 8:0.5971791 9:0.75893458 10:0.84265987 
-8 1:0.84587222 2:0.44471221 3:0.40718856 4:0.58163542 5:0.28172945 6:0.2653375 7:0.13297748 8:0.68083665 9:0.8020424 10:0.86083497 
8 1:0.7633173 2:0.40641756 3:0.35819912 4:0.60737247 5:0.31327481 6:0.2653375 7:0.1618655 8:0.77936954 9:0.88146354 10:0.92299212 
8 1:0.60366382 2:0.3864182 3:0.3199181 4:0.78972948 5:0.420052 6:0.2653375 7:0.25145788 8:0.86353463 9:0.92242924 10:0.94817314 
8 1:0.58204057 2:0.37792467 3:0.30941614 4:0.79359206 5:0.4281679 6:0.2653375 7:0.26005162 8:0.87688453 9:0.931211 10:0.95449977 
8 1:0.4343397 2:0.35976776 3:0.27522982 4:0.92320052 5:0.50626463 6:0.2653375 7:0.31261695 8:0.90736506 9:0.95137879 10:0.96852729 
6.666823467175947 1:0.76561675 2:0.82611104 3:0.66725304 4:0.041287573 5:0.14623538 6:1 7:0.0034208966 8:0.065595707 9:0.088072313 10:0.10111822 
-8 1:0.71387936 2:0.72014209 3:0.58532315 4:0.40656248 5:0.24184473 6:1 7:0.061536678 8:0.28565803 9:0.37684628 10:0.44080258 
-8 1:0.6688096 2:0.67303813 3:0.55287586 4:0.48931648 5:0.29800033 6:1 7:0.10166236 8:0.4388965 9:0.55930945 10:0.63557314 
8 1:0.63766406 2:0.63946026 3:0.51308579 4:0.61783066 5:0.3307221 6:1 7:0.1278093 8:0.46795282 9:0.57738217 10:0.64923173 
8 1:0.60898967 2:0.61584379 3:0.49516196 4:0.66031033 5:0.36751545 6:1 7:0.15711012 8:0.55134439 9:0.66305296 10:0.73186222 
8 1:0.62727332 2:0.58273425 3:0.44842827 4:0.7712792 5:0.40280357 6:1 7:0.1787315 8:0.59206628 9:0.70160525 10:0.76500422 
8 1:0.59770954 2:0.55396931 3:0.42439162 4:0.81761125 5:0.45240993 6:1 7:0.22057656 8:0.68154568 9:0.78312826 10:0.83712752 
-4.034571158651649 1:0.56007388 2:0.52773114 3:0.40120686 4:0.85085587 5:0.49470671 6:1 7:0.25845159 8:0.75095728 9:0.84062742 10:0.88486541 
-8 1:0.48025184 2:0.45670643 3:0.33430383 4:0.90833417 5:0.58444107 6:1 7:0.34967307 8:0.87263714 9:0.92874347 10:0.95245151 
-8 1:0.44657785 2:0.4298273 3:0.30798883 4:0.9231501 5:0.61156381 6:1 7:0.38363164 8:0.90195406 9:0.94721387 10:0.96546684 
-8 1:0.37898414 2:0.23495743 3:0.22123961 4:0.57321244 5:0.28628229 6:0.59325673 7:0.30613856 8:0.55018864 9:0.63507469 10:0.69921956 
-8 1:0.32200799 2:0.20004241 3:0.18533165 4:0.71112368 5:0.37779244 6:0.59325673 7:0.39213387 8:0.6912735 9:0.77191168 10:0.82345866 
-8 1:0.28722431 2:0.1869688 3:0.1689642 4:0.78853081 5:0.42640703 6:0.59325673 7:0.43249653 8:0.74714072 9:0.81818613 10:0.86246318 
-8 1:0.25484924 2:0.16749298 3:0.14886385 4:0.81757489 5:0.48791041 6:0.59325673 7:0.49339103 8:0.82858595 9:0.88579091 10:0.9192852 
-8 1:0.21001351 2:0.15272679 3:0.13024109 4:0.88415943 5:0.556951 6:0.59325673 7:0.54288529 8:0.87835784 9:0.9232155 10:0.94810635 
-8 1:0.19128042 2:0.14288569 3:0.11655639 4:0.92733897 5:0.58900071 6:0.59325673 7:0.55310908 8:0.90350931 9:0.94336162 10:0.96265603 
